<?xml version="1.0"?>
<opencv_storage>
<cascade>
  <stageType>BOOST</stageType>
  <featureType>HAAR</featureType>
  <height>36</height>
  <width>36</width>
  <stageParams>
    <boostType>GAB</boostType>
    <minHitRate>9.9500000476837158e-01</minHitRate>
    <maxFalseAlarm>5.0000000000000000e-01</maxFalseAlarm>
    <weightTrimRate>9.4999998807907104e-01</weightTrimRate>
    <maxDepth>1</maxDepth>
    <maxWeakCount>100</maxWeakCount></stageParams>
  <featureParams>
    <maxCatCount>0</maxCatCount>
    <featSize>1</featSize>
    <mode>BASIC</mode></featureParams>
  <stageNum>4</stageNum>
  <stages>
    <!-- stage 0 -->
    <_>
      <maxWeakCount>2</maxWeakCount>
      <stageThreshold>-6.1128717660903931e-01</stageThreshold>
      <weakClassifiers>
        <_>
          <internalNodes>
            0 -1 1 7.0395946502685547e-02</internalNodes>
          <leafValues>
            -9.7885364294052124e-01 5.6807512044906616e-01</leafValues></_>
        <_>
          <internalNodes>
            0 -1 2 -2.5047776289284229e-03</internalNodes>
          <leafValues>
            -9.7982764244079590e-01 3.6756646633148193e-01</leafValues></_></weakClassifiers></_>
    <!-- stage 1 -->
    <_>
      <maxWeakCount>3</maxWeakCount>
      <stageThreshold>-1.1672736406326294e+00</stageThreshold>
      <weakClassifiers>
        <_>
          <internalNodes>
            0 -1 6 -2.6160641573369503e-04</internalNodes>
          <leafValues>
            -9.5412343740463257e-01 5.8673471212387085e-01</leafValues></_>
        <_>
          <internalNodes>
            0 -1 4 -1.0374916018918157e-04</internalNodes>
          <leafValues>
            6.3698065280914307e-01 -8.9736902713775635e-01</leafValues></_>
        <_>
          <internalNodes>
            0 -1 7 2.1866611205041409e-03</internalNodes>
          <leafValues>
            -8.5663926601409912e-01 7.3856258392333984e-01</leafValues></_></weakClassifiers></_>
    <!-- stage 2 -->
    <_>
      <maxWeakCount>2</maxWeakCount>
      <stageThreshold>-1.8639101088047028e-01</stageThreshold>
      <weakClassifiers>
        <_>
          <internalNodes>
            0 -1 3 -1.1007172986865044e-02</internalNodes>
          <leafValues>
            1. -9.7153401374816895e-01</leafValues></_>
        <_>
          <internalNodes>
            0 -1 5 -4.6725579886697233e-04</internalNodes>
          <leafValues>
            7.8514295816421509e-01 -9.9251043796539307e-01</leafValues></_></weakClassifiers></_>
    <!-- stage 3 -->
    <_>
      <maxWeakCount>1</maxWeakCount>
      <stageThreshold>1.</stageThreshold>
      <weakClassifiers>
        <_>
          <internalNodes>
            0 -1 0 1.0741492733359337e-03</internalNodes>
          <leafValues>
            1. -1.</leafValues></_></weakClassifiers></_></stages>
  <features>
    <_>
      <rects>
        <_>
          0 0 1 2 -1.</_>
        <_>
          0 1 1 1 2.</_></rects>
      <tilted>0</tilted></_>
    <_>
      <rects>
        <_>
          0 14 36 22 -1.</_>
        <_>
          0 25 36 11 2.</_></rects>
      <tilted>0</tilted></_>
    <_>
      <rects>
        <_>
          4 23 30 6 -1.</_>
        <_>
          4 26 30 3 2.</_></rects>
      <tilted>0</tilted></_>
    <_>
      <rects>
        <_>
          6 1 7 30 -1.</_>
        <_>
          6 11 7 10 3.</_></rects>
      <tilted>0</tilted></_>
    <_>
      <rects>
        <_>
          7 0 6 1 -1.</_>
        <_>
          10 0 3 1 2.</_></rects>
      <tilted>0</tilted></_>
    <_>
      <rects>
        <_>
          7 20 9 16 -1.</_>
        <_>
          10 20 3 16 3.</_></rects>
      <tilted>0</tilted></_>
    <_>
      <rects>
        <_>
          23 0 1 3 -1.</_>
        <_>
          23 1 1 1 3.</_></rects>
      <tilted>0</tilted></_>
    <_>
      <rects>
        <_>
          23 29 10 6 -1.</_>
        <_>
          28 29 5 6 2.</_></rects>
      <tilted>0</tilted></_></features></cascade>
</opencv_storage>
